0.971668 1.02991 0.841279 0.617927 0.446051 0.291823 0.177007 0.223787 0.48179 0.727678 
0.0549559 -0.0265508 0.113257 0.401902 0.82052 1.31239 1.63416 1.42755 0.883572 0.408369 
0.300523 0.301686 0.127661 -0.273102 -0.801222 -1.25042 -1.31247 -0.868891 -0.2731 0.133505 
0.169524 -0.131181 -0.765212 -1.53249 -1.84232 -1.53577 -0.891765 -0.154352 0.215872 0.389181 
-1.86552 -2.05719 -1.33731 -0.409319 0.131103 0.419198 0.549837 0.298914 -0.222854 -1.11712 
-0.36589 -0.19271 -0.122094 -0.192457 -0.480577 -0.958722 -1.35186 -1.40422 -1.07787 -0.713979 
-1.39479 -0.512423 0.220161 0.598316 0.558288 0.104264 -0.61026 -1.6823 -2.36311 -2.31947 
0.865864 0.924537 0.850626 0.705255 0.543038 0.38717 0.342243 0.417916 0.577565 0.713912 
-0.623659 -1.32053 -1.92425 -1.92105 -1.31858 -0.52348 0.016169 0.310952 0.233901 -0.00826771 
0.79163 0.793189 0.682692 0.609165 0.604902 0.599147 0.549474 0.543495 0.648012 0.717039 

0.125417 0.152258 0.279228 0.416391 0.319139 0.210373 0.192333 0.194726 0.171878 0.16294 

-1.73878 -3.32658 1.46849 2.9833 2.71309 3.72225 3.75641 -3.09411 3.71348 -1.07187 